<?xml version="1.0"?>
<opencv_storage>
<stage5>
  <maxWeakCount>10</maxWeakCount>
  <stageThreshold>-2.0693409442901611e+00</stageThreshold>
  <weakClassifiers>
    <_>
      <internalNodes>
        0 -1 1238012 5.2425425499677658e-02</internalNodes>
      <leafValues>
        -8.2427626848220825e-01 1.0064239799976349e-01</leafValues></_>
    <_>
      <internalNodes>
        0 -1 888270 -5.7530300691723824e-03</internalNodes>
      <leafValues>
        2.5064733624458313e-01 -6.4323431253433228e-01</leafValues></_>
    <_>
      <internalNodes>
        0 -1 1286319 -1.1830789735540748e-03</internalNodes>
      <leafValues>
        3.6793738603591919e-01 -4.3244463205337524e-01</leafValues></_>
    <_>
      <internalNodes>
        0 -1 1580949 -8.5262022912502289e-03</internalNodes>
      <leafValues>
        5.4392462968826294e-01 -2.6513823866844177e-01</leafValues></_>
    <_>
      <internalNodes>
        0 -1 1222605 -1.1454113759100437e-02</internalNodes>
      <leafValues>
        3.2858413457870483e-01 -4.5686790347099304e-01</leafValues></_>
    <_>
      <internalNodes>
        0 -1 1201770 -6.2716938555240631e-04</internalNodes>
      <leafValues>
        3.0691313743591309e-01 -5.5213421583175659e-01</leafValues></_>
    <_>
      <internalNodes>
        0 -1 1499842 -8.7849225383251905e-04</internalNodes>
      <leafValues>
        2.1989007294178009e-01 -5.7861107587814331e-01</leafValues></_>
    <_>
      <internalNodes>
        0 -1 973683 -1.7450146377086639e-02</internalNodes>
      <leafValues>
        6.9947606325149536e-01 -2.3346564173698425e-01</leafValues></_>
    <_>
      <internalNodes>
        0 -1 1279315 -5.3553720936179161e-03</internalNodes>
      <leafValues>
        1.9027651846408844e-01 -8.4434020519256592e-01</leafValues></_>
    <_>
      <internalNodes>
        0 -1 1514841 8.3075271686539054e-04</internalNodes>
      <leafValues>
        1.1899091303348541e-01 -9.3733119964599609e-01</leafValues></_></weakClassifiers></stage5>
</opencv_storage>
