<?xml version="1.0"?>
<opencv_storage>
<stage11>
  <maxWeakCount>10</maxWeakCount>
  <stageThreshold>-1.4567276239395142e+00</stageThreshold>
  <weakClassifiers>
    <_>
      <internalNodes>
        0 -1 825994 7.7426120638847351e-02</internalNodes>
      <leafValues>
        -7.3564267158508301e-01 1.5702480077743530e-01</leafValues></_>
    <_>
      <internalNodes>
        0 -1 1163755 -1.5729559818282723e-03</internalNodes>
      <leafValues>
        1.9131153821945190e-01 -5.7201981544494629e-01</leafValues></_>
    <_>
      <internalNodes>
        0 -1 1505629 9.9347315728664398e-02</internalNodes>
      <leafValues>
        -2.9218581318855286e-01 4.2237225174903870e-01</leafValues></_>
    <_>
      <internalNodes>
        0 -1 1258703 8.4657937986776233e-04</internalNodes>
      <leafValues>
        -3.2919430732727051e-01 3.5690614581108093e-01</leafValues></_>
    <_>
      <internalNodes>
        0 -1 1357446 -9.5667573623359203e-04</internalNodes>
      <leafValues>
        -8.4847205877304077e-01 1.4631809294223785e-01</leafValues></_>
    <_>
      <internalNodes>
        0 -1 1296665 5.3547328570857644e-04</internalNodes>
      <leafValues>
        1.1436639726161957e-01 -8.7004673480987549e-01</leafValues></_>
    <_>
      <internalNodes>
        0 -1 35279 -1.4191775699146092e-04</internalNodes>
      <leafValues>
        -6.1116385459899902e-01 1.6858689486980438e-01</leafValues></_>
    <_>
      <internalNodes>
        0 -1 1999183 -1.0858471796382219e-05</internalNodes>
      <leafValues>
        2.2819919884204865e-01 -4.8897328972816467e-01</leafValues></_>
    <_>
      <internalNodes>
        0 -1 1388442 -8.0299889668822289e-04</internalNodes>
      <leafValues>
        2.0412993431091309e-01 -5.1801592111587524e-01</leafValues></_>
    <_>
      <internalNodes>
        0 -1 1346121 6.3295278232544661e-04</internalNodes>
      <leafValues>
        -2.9563519358634949e-01 3.8968643546104431e-01</leafValues></_></weakClassifiers></stage11>
</opencv_storage>
