<?xml version="1.0"?>
<opencv_storage>
<stage6>
  <maxWeakCount>10</maxWeakCount>
  <stageThreshold>-1.8975722789764404e+00</stageThreshold>
  <weakClassifiers>
    <_>
      <internalNodes>
        0 -1 465402 -6.1258375644683838e-02</internalNodes>
      <leafValues>
        2.3076923191547394e-01 -7.8209382295608521e-01</leafValues></_>
    <_>
      <internalNodes>
        0 -1 1141518 6.1884233728051186e-03</internalNodes>
      <leafValues>
        -5.9852910041809082e-01 3.3976235985755920e-01</leafValues></_>
    <_>
      <internalNodes>
        0 -1 1380320 4.7214124351739883e-03</internalNodes>
      <leafValues>
        -3.3019071817398071e-01 5.5055910348892212e-01</leafValues></_>
    <_>
      <internalNodes>
        0 -1 1378665 1.5784893184900284e-02</internalNodes>
      <leafValues>
        -6.0375642776489258e-01 2.5961968302726746e-01</leafValues></_>
    <_>
      <internalNodes>
        0 -1 1664721 3.6356033524498343e-04</internalNodes>
      <leafValues>
        -4.8081582784652710e-01 3.1986793875694275e-01</leafValues></_>
    <_>
      <internalNodes>
        0 -1 1535366 3.1705545261502266e-03</internalNodes>
      <leafValues>
        -2.3660966753959656e-01 6.6073781251907349e-01</leafValues></_>
    <_>
      <internalNodes>
        0 -1 209510 -3.4429033985361457e-04</internalNodes>
      <leafValues>
        -6.0123145580291748e-01 2.4667237699031830e-01</leafValues></_>
    <_>
      <internalNodes>
        0 -1 133284 8.2910170021932572e-05</internalNodes>
      <leafValues>
        2.0118141174316406e-01 -6.1848384141921997e-01</leafValues></_>
    <_>
      <internalNodes>
        0 -1 285555 -7.3270156979560852e-02</internalNodes>
      <leafValues>
        2.8696197271347046e-01 -4.2088097333908081e-01</leafValues></_>
    <_>
      <internalNodes>
        0 -1 816244 -9.1743789380416274e-04</internalNodes>
      <leafValues>
        2.8725415468215942e-01 -4.4478720426559448e-01</leafValues></_></weakClassifiers></stage6>
</opencv_storage>
