<?xml version="1.0"?>
<opencv_storage>
<stage17>
  <maxWeakCount>13</maxWeakCount>
  <stageThreshold>-1.7210862636566162e+00</stageThreshold>
  <weakClassifiers>
    <_>
      <internalNodes>
        0 -1 972540 -1.1418258771300316e-02</internalNodes>
      <leafValues>
        -1.1111111193895340e-01 -7.7137076854705811e-01</leafValues></_>
    <_>
      <internalNodes>
        0 -1 1646473 -6.8375957198441029e-04</internalNodes>
      <leafValues>
        2.4377915263175964e-01 -4.8866090178489685e-01</leafValues></_>
    <_>
      <internalNodes>
        0 -1 1287013 -4.0772370994091034e-02</internalNodes>
      <leafValues>
        2.9374292492866516e-01 -3.8342699408531189e-01</leafValues></_>
    <_>
      <internalNodes>
        0 -1 658310 4.5347676496021450e-04</internalNodes>
      <leafValues>
        -5.0428622961044312e-01 1.7968828976154327e-01</leafValues></_>
    <_>
      <internalNodes>
        0 -1 157472 -2.2518899640999734e-04</internalNodes>
      <leafValues>
        -6.5578156709671021e-01 1.6298957169055939e-01</leafValues></_>
    <_>
      <internalNodes>
        0 -1 1277070 9.2591240536421537e-04</internalNodes>
      <leafValues>
        -3.2941219210624695e-01 3.3189082145690918e-01</leafValues></_>
    <_>
      <internalNodes>
        0 -1 1911987 1.1667717481032014e-03</internalNodes>
      <leafValues>
        -2.0770898461341858e-01 5.3865623474121094e-01</leafValues></_>
    <_>
      <internalNodes>
        0 -1 691825 -1.0875521227717400e-02</internalNodes>
      <leafValues>
        5.3326958417892456e-01 -1.9885291159152985e-01</leafValues></_>
    <_>
      <internalNodes>
        0 -1 1034139 6.1782804550603032e-04</internalNodes>
      <leafValues>
        -3.2710379362106323e-01 2.9918110370635986e-01</leafValues></_>
    <_>
      <internalNodes>
        0 -1 1792884 -1.1367970728315413e-05</internalNodes>
      <leafValues>
        2.9979908466339111e-01 -3.3710327744483948e-01</leafValues></_>
    <_>
      <internalNodes>
        0 -1 1783070 -3.0220881104469299e-02</internalNodes>
      <leafValues>
        5.0408196449279785e-01 -2.4510118365287781e-01</leafValues></_>
    <_>
      <internalNodes>
        0 -1 1277803 4.3784547597169876e-03</internalNodes>
      <leafValues>
        -1.4412048459053040e-01 6.4142704010009766e-01</leafValues></_>
    <_>
      <internalNodes>
        0 -1 170501 -6.4315121562685817e-05</internalNodes>
      <leafValues>
        -8.2946389913558960e-01 1.4135609567165375e-01</leafValues></_></weakClassifiers></stage17>
</opencv_storage>
